digraph Tree {
node [shape=box, style="filled", color="black"] ;
0 [label="X[0] <= 30.0\ngini = 0.48\nsamples = 20\nvalue = [8, 12]\nclass = No", fillcolor="#bddef6"] ;
1 [label="X[2] <= 0.5\ngini = 0.375\nsamples = 8\nvalue = [6, 2]\nclass = No", fillcolor="#eeab7b"] ;
0 -> 1 [labeldistance=2.5, labelangle=45, headlabel="True"] ;
2 [label="gini = 0.0\nsamples = 6\nvalue = [6, 0]\nclass = No", fillcolor="#e58139"] ;
1 -> 2 ;
3 [label="gini = 0.0\nsamples = 2\nvalue = [0, 2]\nclass = No", fillcolor="#399de5"] ;
1 -> 3 ;
4 [label="X[3] <= 0.5\ngini = 0.278\nsamples = 12\nvalue = [2, 10]\nclass = No", fillcolor="#61b1ea"] ;
0 -> 4 [labeldistance=2.5, labelangle=-45, headlabel="False"] ;
5 [label="gini = 0.0\nsamples = 6\nvalue = [0, 6]\nclass = No", fillcolor="#399de5"] ;
4 -> 5 ;
6 [label="X[0] <= 40.0\ngini = 0.444\nsamples = 6\nvalue = [2, 4]\nclass = No", fillcolor="#9ccef2"] ;
4 -> 6 ;
7 [label="gini = 0.0\nsamples = 3\nvalue = [0, 3]\nclass = No", fillcolor="#399de5"] ;
6 -> 7 ;
8 [label="X[2] <= 0.5\ngini = 0.444\nsamples = 3\nvalue = [2, 1]\nclass = No", fillcolor="#f2c09c"] ;
6 -> 8 ;
9 [label="gini = 0.0\nsamples = 1\nvalue = [1, 0]\nclass = No", fillcolor="#e58139"] ;
8 -> 9 ;
10 [label="X[1] <= 3.0\ngini = 0.5\nsamples = 2\nvalue = [1, 1]\nclass = No", fillcolor="#ffffff"] ;
8 -> 10 ;
11 [label="gini = 0.0\nsamples = 1\nvalue = [1, 0]\nclass = No", fillcolor="#e58139"] ;
10 -> 11 ;
12 [label="gini = 0.0\nsamples = 1\nvalue = [0, 1]\nclass = No", fillcolor="#399de5"] ;
10 -> 12 ;
}